{
  "x": 0,
  "y": 0,
  "v": 0,
  "r": 0,
  "sight": [
    1,
    1
  ],
  "net": {
    "levels": [
      {
        "biases": [
          -0.4306890988166021,
          -0.9579790974454494,
          -0.7154175249641943,
          0.37420715291170303,
          0.18113377377480466,
          0.312707082192734,
          -0.8650931879635242
        ],
        "inputs": [
          1,
          1,
          0.5,
          1,
          0.3
        ],
        "outputs": [
          0,
          0,
          0,
          0,
          0,
          0,
          0
        ],
        "activation": "tanh",
        "weights": [
          [
            -0.8903215608597081,
            0.0635169962626736,
            -0.38569264808940495,
            0.7532754306884559,
            -0.5346885721453467,
            0.6302435503447517,
            -0.27434927990935964
          ],
          [
            -0.51293833361157,
            0.12892459540578782,
            0.24936990551801808,
            0.3246394758100073,
            -0.8618340121687926,
            0.10948090826243329,
            0.4756894440479238
          ],
          [
            -0.9575945813646869,
            0.7294245705251416,
            0.3867722541978984,
            -0.21367596790340881,
            0.1315804179186948,
            -0.94081116850837,
            -0.6347380340868694
          ],
          [
            0.969064672804103,
            0.022914007437423223,
            0.04404449023274504,
            0.9822304201820362,
            0.12808368401490888,
            -0.6530777795871017,
            0.5500193782124776
          ],
          [
            0.832974196056643,
            -0.8312284411960214,
            0.4966807966990734,
            -0.4375558067438874,
            0.8846843329383405,
            0.45125104394444593,
            0.3867242275729219
          ]
        ]
      },
      {
        "biases": [
          0.1067644412715496,
          -0.4590615098450397,
          0.22725923872253917,
          -0.3991695449084993,
          0.3533662527539372,
          0.9009523564054858,
          0.9406892415203827
        ],
        "inputs": [
          null,
          null,
          null,
          null,
          null,
          null,
          null
        ],
        "outputs": [
          0,
          0,
          0,
          0,
          0,
          0,
          0
        ],
        "activation": "tanh",
        "weights": [
          [
            0.757379989879142,
            -0.1230930307387692,
            0.6724827949512635,
            0.2839136146742116,
            -0.5908333602309166,
            0.8834081600474271,
            0.5801599165965112
          ],
          [
            0.947967471583194,
            -0.8421995275183694,
            -0.4100170965510843,
            0.3544010994207434,
            -0.31870253204672094,
            -0.8913767416420018,
            0.7026900082202996
          ],
          [
            0.1750839375879183,
            -0.5052829396584388,
            -0.9664123942472549,
            -0.17786709764275965,
            -0.387085166741727,
            0.726557727639781,
            -0.36350231994354587
          ],
          [
            0.7092548229831555,
            -0.057743084458605765,
            -0.7556689408759354,
            0.3762402161571976,
            -0.9301734793740195,
            -0.08320932322554508,
            -0.8015231147329471
          ],
          [
            -0.34916037373356534,
            0.759726206857847,
            -0.9003670823854106,
            0.7837412447539229,
            -0.039547545482375046,
            -0.3365088009279318,
            -0.8664035210204615
          ],
          [
            -0.4725441872452465,
            0.005677418900582598,
            -0.8238747513878235,
            0.24353290452951626,
            0.39378624758866776,
            0.4697665138332039,
            0.1004325175750771
          ],
          [
            0.9119283596583037,
            -0.17444060575788534,
            -0.012526538731564063,
            0.8874008416614148,
            0.23418952714732066,
            -0.40619489510462303,
            -0.7169520950314539
          ]
        ]
      },
      {
        "biases": [
          0.49160190563947115,
          -0.8995498213411373
        ],
        "inputs": [
          null,
          null,
          null,
          null,
          null,
          null,
          null
        ],
        "outputs": [
          0,
          0
        ],
        "activation": "tanh",
        "weights": [
          [
            0.1561649160364289,
            -0.15336800788425053
          ],
          [
            0.4391029547828236,
            0.442091566499466
          ],
          [
            0.6049310693509211,
            -0.9689592216125877
          ],
          [
            -0.17776282908671082,
            -0.2987160207497266
          ],
          [
            0.2409476471802079,
            0.7322778950323343
          ],
          [
            0.7837914593963209,
            0.655403116762221
          ],
          [
            -0.5648303031747526,
            0.18684517195428985
          ]
        ]
      }
    ]
  }
}